#ifndef SCREEN_VISION_MNN_UI_MODEL_WEIGHTS_H
#define SCREEN_VISION_MNN_UI_MODEL_WEIGHTS_H

namespace screenvision::sdk::mnnmodel {
static const int kInputDim = 21;
static const int kHidden1Dim = 32;
static const int kHidden2Dim = 16;
static const int kOutputDim = 5;

static const float kFc1Weight[] = {
    0.10661225f,
    -0.11115386f,
    -0.31188360f,
    -0.10321620f,
    -0.57530284f,
    -0.21394880f,
    -0.75904322f,
    0.43534890f,
    0.06692822f,
    -0.03701118f,
    -0.21487570f,
    0.30103385f,
    0.06547724f,
    -0.19401193f,
    -0.35748380f,
    0.13796912f,
    -0.27334949f,
    -0.14590797f,
    -0.18782744f,
    -0.10642111f,
    -0.16411929f,
    -0.50558388f,
    -0.05766559f,
    -0.72958213f,
    -0.13001236f,
    0.32844824f,
    0.38045466f,
    0.24168222f,
    -0.09019720f,
    -0.33496684f,
    -0.11616683f,
    0.03642530f,
    0.14485484f,
    -0.50110948f,
    -0.39738062f,
    0.25271857f,
    -0.12620385f,
    0.26653162f,
    0.21612597f,
    -0.23494293f,
    -0.08422932f,
    0.23874998f,
    1.04079497f,
    0.38998044f,
    0.14775632f,
    0.06237573f,
    0.01708854f,
    0.43623409f,
    -0.28624588f,
    0.40523353f,
    0.75207090f,
    0.11918534f,
    -0.20687045f,
    0.14014778f,
    -0.59507138f,
    0.13931075f,
    -0.22414482f,
    -0.04286584f,
    0.47585663f,
    0.51541913f,
    0.24087912f,
    0.55788529f,
    0.08655541f,
    0.08429930f,
    -0.35609704f,
    -0.56678092f,
    0.98646688f,
    -0.16731454f,
    0.63901371f,
    0.04911414f,
    0.18758762f,
    0.14410096f,
    0.48592651f,
    0.15656216f,
    -0.40520453f,
    0.56340629f,
    -0.63806522f,
    0.49702916f,
    0.81219172f,
    -0.20566846f,
    0.27920321f,
    0.59140337f,
    -0.10181297f,
    0.22095288f,
    0.22199771f,
    -0.07687581f,
    0.43820739f,
    -0.31142664f,
    0.24607274f,
    0.11073952f,
    0.74699867f,
    -0.11565902f,
    -0.19636202f,
    0.20371771f,
    -0.51521415f,
    0.39503139f,
    0.46231639f,
    -0.09658864f,
    0.44886726f,
    0.29127377f,
    -0.57217073f,
    0.03179005f,
    0.35688677f,
    -0.11427824f,
    0.37799951f,
    0.10543222f,
    0.08569982f,
    -0.51336163f,
    -0.62234980f,
    0.02618196f,
    -0.02330934f,
    -0.02513160f,
    -0.30665925f,
    -0.23027487f,
    0.39282402f,
    0.19058155f,
    -0.06475282f,
    -0.18091665f,
    0.54247260f,
    -0.04326085f,
    -0.03959884f,
    -0.14122240f,
    0.72604221f,
    0.37469891f,
    0.87555319f,
    0.45014477f,
    -0.18158413f,
    -0.01458597f,
    -0.13691115f,
    0.34055495f,
    0.40131053f,
    0.38065752f,
    0.00576540f,
    -0.13220550f,
    0.27343649f,
    -0.10653313f,
    -0.13373132f,
    0.43131238f,
    -0.26835021f,
    -0.17438976f,
    -0.46687275f,
    -0.49373212f,
    -0.10073502f,
    -0.61024582f,
    0.38770571f,
    0.31523231f,
    -0.47818100f,
    0.35631934f,
    0.00171644f,
    0.01620282f,
    -0.01443888f,
    -0.14086914f,
    0.15677863f,
    0.02952689f,
    0.14501791f,
    -0.22111203f,
    -0.58160347f,
    -0.52024752f,
    -0.03002720f,
    0.42434135f,
    -0.40160114f,
    -0.27699205f,
    0.29075894f,
    -0.07807612f,
    -0.24877992f,
    0.27735645f,
    0.34337738f,
    0.22147606f,
    -0.29317454f,
    0.07238519f,
    -0.54262823f,
    0.10469200f,
    0.20791750f,
    0.16837427f,
    -0.10693506f,
    0.34954846f,
    -0.19097038f,
    -0.03844031f,
    0.22099452f,
    -0.18151526f,
    -0.36248243f,
    0.77625173f,
    0.08521118f,
    0.38755500f,
    1.13822663f,
    0.36664686f,
    -0.31567353f,
    0.09150115f,
    0.03479061f,
    -0.31822866f,
    0.23598956f,
    -0.71373224f,
    0.00126067f,
    -0.03555400f,
    0.12379204f,
    0.01428368f,
    -0.31208703f,
    -0.01855758f,
    0.34023151f,
    0.07171884f,
    -0.46568689f,
    0.58911419f,
    0.41064444f,
    0.09413010f,
    -0.14794388f,
    -0.05868791f,
    0.32796776f,
    0.00898266f,
    0.29070821f,
    -0.17224009f,
    0.79786736f,
    0.76166326f,
    0.38349953f,
    0.45725924f,
    -0.25034857f,
    -0.06568848f,
    0.55726463f,
    0.49180287f,
    0.60054821f,
    0.60625273f,
    -0.26242471f,
    -0.19263896f,
    -0.18996195f,
    -0.66091007f,
    0.30832034f,
    -0.21669869f,
    -0.10599407f,
    0.36737627f,
    0.20184112f,
    0.06184394f,
    0.18346447f,
    0.07543251f,
    0.20516291f,
    0.05686355f,
    -0.12401655f,
    -0.04123317f,
    0.03364085f,
    -0.08742225f,
    -0.31282234f,
    0.19435680f,
    0.29498532f,
    0.28078040f,
    0.11228506f,
    0.73424619f,
    -0.24849166f,
    0.26679137f,
    0.18843277f,
    0.62830603f,
    0.13484456f,
    -0.12124413f,
    -0.09262481f,
    -0.08215438f,
    0.02038595f,
    -0.31089640f,
    -0.04623095f,
    0.41863358f,
    0.66404670f,
    0.35744202f,
    0.65260029f,
    0.57216829f,
    -0.02182207f,
    -0.03169419f,
    0.24530454f,
    0.44398698f,
    0.23862144f,
    0.38961437f,
    -0.03841411f,
    -0.41446632f,
    -0.13891032f,
    0.38155282f,
    0.42787328f,
    -0.51154417f,
    -0.72888821f,
    -0.05108755f,
    -0.32698992f,
    -0.56807768f,
    0.56582373f,
    0.17639574f,
    -0.03254849f,
    0.24620791f,
    -0.30586144f,
    -0.23170908f,
    0.28924191f,
    0.42399591f,
    -0.23816685f,
    0.85010570f,
    -0.08480489f,
    -0.19459127f,
    -0.28162169f,
    -0.08956996f,
    0.36681345f,
    -0.34327367f,
    0.05950965f,
    0.03555570f,
    -0.30794528f,
    0.02517280f,
    0.13464426f,
    -0.14901282f,
    0.09729440f,
    0.01187616f,
    -0.23742445f,
    0.31988513f,
    0.50761867f,
    -0.08917684f,
    -0.01659242f,
    -0.32248756f,
    -0.15268257f,
    -0.16027363f,
    0.15696301f,
    0.35671461f,
    0.25645670f,
    0.45779291f,
    -0.28300852f,
    -0.16903971f,
    0.59485209f,
    0.38838652f,
    -0.18278888f,
    0.38239479f,
    0.26850826f,
    -0.20790395f,
    0.21824569f,
    0.38255250f,
    0.18978207f,
    0.55404627f,
    -0.42477083f,
    0.24074015f,
    0.73774481f,
    -0.07338098f,
    -0.24481790f,
    0.15666527f,
    -0.34596980f,
    0.12047634f,
    -0.10210112f,
    0.28061986f,
    -0.55662882f,
    -0.10519652f,
    0.06720821f,
    0.57063985f,
    -0.31548020f,
    -0.06803751f,
    0.47724718f,
    -0.75346851f,
    -0.37209418f,
    0.48661140f,
    -0.11351830f,
    0.00251974f,
    0.11125670f,
    0.49551123f,
    0.09969332f,
    -0.41482574f,
    0.00981375f,
    0.33689073f,
    -0.23909844f,
    0.52153832f,
    -0.02606471f,
    -0.68690544f,
    -0.33310413f,
    -0.49420929f,
    0.17367251f,
    -0.53581822f,
    0.04634041f,
    -0.08514805f,
    0.08307053f,
    -0.03470616f,
    0.05640633f,
    0.38639417f,
    -0.28471753f,
    0.65421885f,
    -0.13705000f,
    0.16427468f,
    0.07101803f,
    -0.09672562f,
    0.37856200f,
    0.69543129f,
    0.27042273f,
    -0.37264028f,
    -0.59577346f,
    0.48770741f,
    -0.04954979f,
    -0.49800986f,
    -0.11928389f,
    -0.30788073f,
    0.33403325f,
    -0.22885199f,
    0.39226907f,
    0.03942907f,
    0.16498724f,
    0.06462085f,
    -0.04559669f,
    0.25225294f,
    0.10035646f,
    0.30343890f,
    0.39225492f,
    0.02122406f,
    -0.04678114f,
    -0.84556937f,
    0.14621265f,
    0.05691205f,
    -0.14677420f,
    -0.04087437f,
    0.35488456f,
    0.15754014f,
    0.33830133f,
    -0.14927152f,
    -0.35374090f,
    0.06667774f,
    0.34460130f,
    0.21691892f,
    -0.40835720f,
    0.57659876f,
    -0.33863714f,
    0.04571442f,
    0.30768117f,
    -0.08293910f,
    -0.21481763f,
    -0.49156776f,
    0.73907405f,
    -0.11010031f,
    -0.00477315f,
    0.24472331f,
    0.18143189f,
    0.61592019f,
    0.06154557f,
    0.28347218f,
    0.81843942f,
    0.92620569f,
    -0.00863278f,
    0.06521345f,
    -0.00788658f,
    0.13321133f,
    -0.67879677f,
    -0.25162408f,
    0.06498578f,
    -0.40642777f,
    0.02351336f,
    -0.32565194f,
    -0.07284809f,
    -0.19896266f,
    0.29443535f,
    0.19080839f,
    -0.34228328f,
    -0.36529547f,
    0.62539738f,
    0.04800626f,
    -0.25513601f,
    -0.01671481f,
    -0.38377506f,
    0.70336741f,
    -0.63463753f,
    -0.46684960f,
    -0.07704839f,
    -0.09304802f,
    -0.15655303f,
    -0.24407969f,
    -0.04363859f,
    -0.49809718f,
    -0.16216139f,
    -0.02562353f,
    -0.55110145f,
    0.41567028f,
    0.07886116f,
    0.21906903f,
    -0.10789767f,
    0.41657469f,
    0.23925084f,
    0.47119960f,
    -0.38146889f,
    0.06401119f,
    -0.30864531f,
    -0.42019525f,
    0.29672337f,
    0.13525572f,
    0.10942908f,
    0.02645196f,
    0.21545208f,
    0.07932311f,
    0.15223327f,
    0.26925498f,
    0.34309262f,
    -0.08242913f,
    0.02106705f,
    -0.10501443f,
    0.36308548f,
    -0.14060007f,
    -0.03115443f,
    0.47128829f,
    0.20823383f,
    0.23030284f,
    0.69105613f,
    0.19623181f,
    -0.21011719f,
    0.00261245f,
    -0.22539522f,
    -0.17761698f,
    -0.16824597f,
    0.36475593f,
    -0.31250483f,
    -0.10692406f,
    0.16014783f,
    -0.42568910f,
    -0.07869165f,
    0.49592474f,
    -0.87975991f,
    0.15754135f,
    0.02425555f,
    0.18136621f,
    0.38883358f,
    -0.43408599f,
    0.66175807f,
    0.02336410f,
    0.62907660f,
    -0.10542142f,
    -0.45901677f,
    0.39332792f,
    -0.29458049f,
    0.08481368f,
    0.19574040f,
    0.27409023f,
    -0.00780577f,
    -0.18225953f,
    -0.22489588f,
    -0.00527735f,
    0.70644748f,
    1.07212913f,
    0.31973106f,
    -0.32941398f,
    -0.63338989f,
    0.20328674f,
    -0.02846388f,
    -0.30187783f,
    0.13507715f,
    -0.27580199f,
    -0.01658955f,
    0.61429513f,
    0.61606383f,
    -0.13428615f,
    0.07723942f,
    -0.18082216f,
    0.20220238f,
    -0.17664112f,
    0.04961179f,
    0.34884423f,
    0.08443060f,
    -0.11871762f,
    -0.04394183f,
    0.58905172f,
    -0.14761621f,
    -0.01565127f,
    -0.02312017f,
    0.17688282f,
    -0.28360656f,
    -0.08687315f,
    -0.01385890f,
    0.02251693f,
    0.33224073f,
    -0.40752509f,
    0.04315110f,
    0.40049431f,
    -0.00615597f,
    0.06842533f,
    0.15642092f,
    0.24299417f,
    -0.09730571f,
    -0.16101517f,
    0.49407038f,
    -0.27509114f,
    0.54627037f,
    -0.25608474f,
    -0.12045792f,
    0.41349500f,
    -0.97028631f,
    0.78629655f,
    -0.42130348f,
    0.17877935f,
    0.44099388f,
    0.25398028f,
    0.48338169f,
    -0.16928415f,
    -0.38736933f,
    0.21819651f,
    -0.42917809f,
    0.25971976f,
    0.58901566f,
    0.26333562f,
    0.28083324f,
    0.21732368f,
    -0.59454018f,
    -0.58167619f,
    -0.15125181f,
    -0.34462735f,
    -0.69721985f,
    -0.24696124f,
    0.53829169f,
    -0.12649813f,
    0.22014700f,
    0.08048283f,
    0.12797277f,
    -0.01376626f,
    -0.34834030f,
    0.86514968f,
    0.17273122f,
    -0.00016856f,
    0.12146599f,
    0.69217151f,
    -0.16810553f,
    -0.11753713f,
    0.05024676f,
    -0.31012020f,
    0.24376301f,
    -0.41179651f,
    0.21697514f,
    -0.05035454f,
    -0.51029927f,
    0.13005982f,
    -0.39292946f,
    0.08924236f,
    -0.21103644f,
    0.23087403f,
    -0.43562880f,
    0.14263156f,
    -0.12631686f,
    0.36335903f,
    0.07865186f,
    -0.49950334f,
    0.66623092f,
    0.56758946f,
    0.09849474f,
    -0.19838831f,
    -0.15892412f,
    0.12042107f,
    0.56188929f,
    0.11278381f,
    0.22205579f,
    0.16205059f,
    -0.39823315f,
    -0.21727730f,
    -0.55766797f,
    0.44862464f,
    0.00076803f,
    0.28282282f,
    0.62856281f,
    0.13316506f,
    0.03997269f,
    0.13597021f,
    0.58669692f,
    -0.17718479f,
    -0.51953590f,
    0.49791217f,
    0.25509554f,
    0.14684203f,
    0.06553443f,
    0.20899026f,
    -0.47024700f,
    0.23342679f,
    0.64436316f,
    -0.12955819f,
    0.57596833f,
    0.46928030f,
    0.49655092f,
    0.07839663f,
    0.37718070f,
    -0.35310152f,
    0.41094595f,
    0.24260698f,
    -0.47218966f,
    0.24355933f,
    0.33894631f,
    -0.66145945f,
    -0.00984914f,
    0.42197594f,
    -0.08478545f,
    0.01349552f
};

static const float kFc1Bias[] = {
    -0.00230467f,
    -0.03966586f,
    -0.21126640f,
    0.25241449f,
    0.14503090f,
    0.52038217f,
    -0.04432126f,
    0.08083284f,
    0.27931118f,
    0.09300666f,
    -0.28717968f,
    0.29151109f,
    -0.14866997f,
    0.22591503f,
    -0.12138931f,
    0.04741834f,
    -0.05829594f,
    0.50665677f,
    -0.00531353f,
    0.09122335f,
    0.07129082f,
    -0.00029053f,
    0.28362083f,
    0.03703213f,
    0.34034529f,
    0.15861082f,
    0.14226118f,
    0.02160677f,
    0.52546984f,
    0.04041143f,
    0.04560615f,
    0.22172296f
};

static const float kFc2Weight[] = {
    0.17226179f,
    0.21805054f,
    -0.49774089f,
    0.26817837f,
    0.32770658f,
    -0.07814384f,
    -0.26232916f,
    -0.02704654f,
    -0.52046192f,
    -0.20638041f,
    0.19790867f,
    0.14763676f,
    0.50020373f,
    0.04378036f,
    -0.12527891f,
    0.20459528f,
    0.59560263f,
    -0.23200713f,
    0.30105236f,
    -0.64607018f,
    0.14046106f,
    -0.18926135f,
    -0.37220880f,
    -0.15371677f,
    0.14396526f,
    -0.19231462f,
    -0.01796075f,
    1.36918926f,
    0.58131617f,
    -0.12608649f,
    -0.27461421f,
    0.33344278f,
    0.34507322f,
    -0.13287373f,
    0.01112082f,
    0.26618746f,
    -0.43378675f,
    0.17631185f,
    -0.31505924f,
    -0.21835731f,
    -0.24467930f,
    0.12311856f,
    0.27124494f,
    -0.42900607f,
    0.12521321f,
    0.04909211f,
    0.12389186f,
    0.24800764f,
    -0.29337832f,
    -0.11731256f,
    0.34125170f,
    0.01559035f,
    0.43158549f,
    -0.37629074f,
    0.47847718f,
    0.16544591f,
    -0.27425176f,
    0.43735594f,
    -0.29053387f,
    0.13186951f,
    -0.06500857f,
    0.00875819f,
    -0.53567213f,
    0.03648219f,
    -0.41783342f,
    0.00115339f,
    0.24336794f,
    0.01935524f,
    -0.58322740f,
    -0.20803057f,
    0.19247366f,
    -0.17146806f,
    0.48126420f,
    -0.32700676f,
    -0.11637782f,
    0.33701268f,
    -0.43972442f,
    -0.15463062f,
    0.46348929f,
    -0.29038543f,
    0.00675547f,
    0.48418063f,
    0.31507367f,
    -0.12565097f,
    -0.41159582f,
    -0.16763003f,
    0.04398639f,
    -0.09889598f,
    -0.30446911f,
    0.36874500f,
    0.18721074f,
    0.52480072f,
    -0.07014756f,
    0.44953951f,
    -0.08567718f,
    -0.72123575f,
    -0.00815101f,
    0.45545602f,
    -0.48309556f,
    -0.41312432f,
    -0.35307857f,
    -0.09883529f,
    0.01596963f,
    0.42723382f,
    -0.08618493f,
    -0.01297668f,
    0.04719733f,
    -0.09812597f,
    0.14340793f,
    0.39003715f,
    0.08612847f,
    0.23452975f,
    -0.06960893f,
    0.17482989f,
    0.45733649f,
    -0.65483159f,
    0.31022415f,
    0.25531921f,
    0.28178945f,
    -0.36492530f,
    -0.18315731f,
    0.49086770f,
    -0.11288644f,
    -0.05250231f,
    -0.13828783f,
    0.08398911f,
    -0.12295800f,
    0.12454681f,
    0.12656738f,
    0.22585748f,
    -0.30157942f,
    0.38100132f,
    -0.23445520f,
    -0.14102948f,
    -0.09512022f,
    -0.11402011f,
    0.72367060f,
    0.10814968f,
    -0.17650564f,
    0.27910689f,
    -0.27964363f,
    -0.45347410f,
    0.22316085f,
    0.40054968f,
    0.04349562f,
    0.90101260f,
    -0.07935810f,
    -0.37905279f,
    -0.02622366f,
    0.03926752f,
    0.47552288f,
    0.00881449f,
    0.01255648f,
    0.19430999f,
    0.08756263f,
    0.76416892f,
    0.47063488f,
    0.36464709f,
    -0.16720772f,
    -0.35259721f,
    -0.06942526f,
    -0.17274119f,
    0.05222981f,
    -0.12847553f,
    -0.12302379f,
    -0.11807282f,
    -0.02881642f,
    -0.18431720f,
    0.20634781f,
    0.44915378f,
    -0.36148077f,
    0.07182538f,
    -0.04499996f,
    0.00550742f,
    -0.09183750f,
    0.08922371f,
    -0.12048917f,
    -0.31350628f,
    0.25794238f,
    -0.31044081f,
    -0.14971632f,
    0.10155453f,
    -0.16892649f,
    0.16245072f,
    -0.01681501f,
    0.30594346f,
    -0.44972369f,
    0.50863498f,
    -0.45288616f,
    -0.28625464f,
    -0.28027514f,
    -0.39799833f,
    -0.03279858f,
    0.00920106f,
    0.70621425f,
    -0.34677726f,
    -0.15633656f,
    0.73949611f,
    -0.37662542f,
    -0.12262284f,
    0.68115419f,
    -0.22216406f,
    -0.00181861f,
    0.06882107f,
    0.18906929f,
    -0.39745182f,
    0.23328570f,
    -0.12089428f,
    -0.17468271f,
    0.28304109f,
    0.39113355f,
    0.18221585f,
    -0.08390615f,
    0.04615652f,
    -0.06767025f,
    0.26693776f,
    0.64417875f,
    -0.09587036f,
    -0.34817797f,
    0.17430967f,
    -0.13881582f,
    0.00501925f,
    0.21640591f,
    -0.77339655f,
    0.22498472f,
    0.41226804f,
    0.62230372f,
    -0.03535432f,
    0.46436647f,
    -0.18314645f,
    -0.27266210f,
    -0.46182013f,
    -0.63686067f,
    0.25705329f,
    0.31991768f,
    0.03371773f,
    0.74414569f,
    -0.26166785f,
    0.01569455f,
    -0.14902653f,
    -0.16850510f,
    -0.91220140f,
    -0.04934020f,
    0.23840751f,
    0.12549500f,
    0.22691949f,
    -0.20526062f,
    0.22999643f,
    0.93634516f,
    -0.15564546f,
    -0.29459766f,
    0.76265734f,
    -0.09030530f,
    -0.22211613f,
    0.21622042f,
    0.25441146f,
    0.29389799f,
    0.11857846f,
    -0.18574497f,
    -0.24860130f,
    -0.30053255f,
    -0.66043669f,
    -0.14601593f,
    0.44846609f,
    -0.37831160f,
    -0.47213039f,
    0.04976929f,
    -0.00165526f,
    -0.08334736f,
    0.23818573f,
    0.24386375f,
    0.35243899f,
    0.42878553f,
    0.02254899f,
    -0.43472701f,
    -0.00306801f,
    0.07462947f,
    0.16003220f,
    0.42033875f,
    -0.29511014f,
    -0.46074474f,
    -0.29688156f,
    -0.12533888f,
    0.10488011f,
    -0.38586497f,
    0.11958872f,
    0.29599586f,
    -0.13928056f,
    -0.05674158f,
    -0.30306432f,
    0.47889832f,
    0.18589558f,
    -0.30284166f,
    -0.30873093f,
    -0.06906189f,
    0.17819615f,
    0.05674722f,
    -0.29018366f,
    0.45657822f,
    0.25588116f,
    -0.26108202f,
    -0.25834548f,
    0.17386794f,
    0.42690548f,
    -0.35448766f,
    -0.16156019f,
    -0.45723796f,
    0.37728631f,
    0.15665090f,
    0.26911128f,
    0.65572369f,
    0.08231086f,
    -0.32101199f,
    0.68075651f,
    0.11572561f,
    -0.36653262f,
    -0.06791927f,
    0.30808154f,
    0.32828593f,
    0.28638291f,
    -0.40471596f,
    -0.01594485f,
    0.39297533f,
    -0.02441544f,
    -0.02609144f,
    0.40821984f,
    0.44142941f,
    -0.38016975f,
    0.13512409f,
    -0.01068428f,
    0.16920336f,
    0.56528699f,
    0.39485547f,
    -0.01320053f,
    -0.44786361f,
    0.07075953f,
    0.17061380f,
    -0.42287096f,
    -0.14774661f,
    -0.11281014f,
    -0.01506182f,
    -0.02700077f,
    0.02681870f,
    0.08783609f,
    0.29512817f,
    0.05367929f,
    -0.29088613f,
    0.14501446f,
    0.25587964f,
    -0.21990091f,
    -0.53876436f,
    0.24791485f,
    -0.33296302f,
    0.19323330f,
    0.24770230f,
    -0.27814779f,
    0.01948968f,
    0.22964522f,
    -0.01368979f,
    0.39827985f,
    -0.25058055f,
    -0.30570644f,
    -0.46223316f,
    0.17301233f,
    -0.37749454f,
    0.13694373f,
    0.81533140f,
    0.01396562f,
    -0.37410522f,
    0.17570163f,
    -0.28838739f,
    0.60958427f,
    -0.07815819f,
    -0.22358148f,
    -0.43883184f,
    0.40692258f,
    0.31005633f,
    0.31261092f,
    0.05571982f,
    -0.00776827f,
    0.05533946f,
    0.24784729f,
    -0.11795530f,
    -0.07502149f,
    -0.08153372f,
    -0.07597810f,
    0.47512195f,
    0.63328201f,
    0.34431419f,
    -0.97732973f,
    0.02969287f,
    0.01605849f,
    -0.30853286f,
    0.03001235f,
    0.69791096f,
    -0.23598507f,
    0.33914825f,
    -0.16542135f,
    -0.08286614f,
    0.46262336f,
    0.04035657f,
    -0.14422800f,
    -0.37224317f,
    -0.58227736f,
    0.06044849f,
    0.26539943f,
    -0.04660935f,
    0.19881332f,
    -0.33654085f,
    0.03041931f,
    0.51622790f,
    -0.13335827f,
    -0.23566829f,
    0.14183275f,
    0.26505244f,
    0.79962361f,
    -0.00555143f,
    -0.36138564f,
    0.61139393f,
    0.46849346f,
    -0.02076372f,
    0.69255155f,
    0.45888677f,
    0.30120346f,
    0.14017960f,
    0.13559498f,
    0.01623013f,
    0.03584643f,
    -0.35581723f,
    0.56360257f,
    0.05161678f,
    -0.26226932f,
    -0.06775597f,
    -0.13340814f,
    0.15731910f,
    0.43800423f,
    -0.20705603f,
    -0.36420184f,
    0.10444485f,
    -0.36090657f,
    0.57535839f,
    -0.25716159f,
    0.12809981f,
    -0.21867424f,
    0.04709873f,
    -0.31469032f,
    0.59671664f,
    -0.01124346f,
    0.13311720f,
    0.03705496f,
    -0.11008120f,
    -0.07356606f,
    0.38449898f,
    -0.09944769f,
    -0.10705499f,
    -0.11179952f,
    -0.06884687f,
    -0.11196857f,
    0.12515354f,
    -0.08268985f,
    -0.45376709f,
    0.50346607f,
    -0.25974196f,
    -0.15947865f,
    0.01723825f,
    -0.32920089f,
    -0.38274762f,
    -0.01706431f,
    0.13050924f,
    -0.03305064f,
    0.10789119f,
    -0.24017304f,
    0.03120083f,
    -0.08604664f,
    -0.79884696f,
    -0.13733140f,
    -0.15034869f,
    0.14388096f,
    -0.46052206f,
    0.32432982f,
    -0.23941009f,
    -0.38948959f,
    -0.63281071f,
    0.44008228f,
    0.40034503f,
    0.40717784f,
    -0.15888435f,
    0.25997955f,
    -0.24952054f,
    0.31743783f,
    -1.25744629f,
    0.64893359f,
    0.11901614f,
    0.35311961f,
    -0.25484571f,
    -0.17885661f,
    -0.17089052f,
    0.39796922f,
    0.20319825f,
    -0.08871923f,
    -0.37410042f,
    -0.32898110f,
    0.30737343f,
    -0.37732711f,
    0.61655390f,
    0.33824831f,
    0.29333165f,
    0.37295666f,
    0.85436440f,
    -0.25411382f,
    -0.06307472f,
    0.22921747f
};

static const float kFc2Bias[] = {
    -0.15095854f,
    -0.04569686f,
    -0.27779350f,
    -0.00448210f,
    0.12716894f,
    -0.00360648f,
    0.10582913f,
    -0.36503229f,
    -0.01147217f,
    0.10679916f,
    0.08366710f,
    -0.04631646f,
    -0.09271945f,
    0.31341243f,
    -0.00064864f,
    0.59886724f
};

static const float kFc3Weight[] = {
    -0.47804841f,
    -0.06549515f,
    -0.88701934f,
    -0.36176538f,
    0.31179592f,
    -0.50920266f,
    -0.05377381f,
    -1.38009477f,
    0.55524415f,
    -0.06868330f,
    0.27250046f,
    -0.60592192f,
    -0.49246958f,
    0.34260115f,
    -0.25081292f,
    1.74625993f,
    -0.55965990f,
    0.09970643f,
    0.36971906f,
    -0.25699252f,
    -0.71612495f,
    -0.12964429f,
    -0.67840797f,
    0.06730774f,
    0.02093090f,
    1.13605201f,
    -0.03619000f,
    0.02840665f,
    1.62782729f,
    -0.22950807f,
    0.43689388f,
    -0.75383127f,
    1.44639719f,
    0.11135446f,
    -0.32337257f,
    -0.36771682f,
    0.08499538f,
    0.23681486f,
    -0.44199818f,
    0.81463081f,
    0.14175330f,
    -0.88391352f,
    0.32472381f,
    -0.10863637f,
    0.18959700f,
    -0.87019742f,
    -0.23816802f,
    0.04417615f,
    -1.09825408f,
    0.06698395f,
    -0.19749789f,
    -0.04622301f,
    -0.73296666f,
    0.17568277f,
    1.26297998f,
    0.54973096f,
    0.11743345f,
    0.04488694f,
    0.19561012f,
    -0.00158408f,
    -0.56342292f,
    0.64567292f,
    -0.56969661f,
    -0.92770600f,
    -0.37547496f,
    -0.31999677f,
    1.41672707f,
    0.35971814f,
    1.35028279f,
    0.33651057f,
    0.54312891f,
    -0.90928811f,
    -0.11103749f,
    0.43797812f,
    -0.36481491f,
    -0.00151059f,
    -0.28812328f,
    -0.79192847f,
    0.00034186f,
    -0.30283424f
};

static const float kFc3Bias[] = {
    0.45543492f,
    -0.09398071f,
    -0.32222128f,
    0.12474469f,
    -0.16397682f
};

} // namespace screenvision::sdk::mnnmodel

#endif
